digraph Tree {
node [shape=box, fontname="helvetica"] ;
edge [fontname="helvetica"] ;
0 [label="fatigue <= 0.5\nentropy = 5.3\nsamples = 492\nvalue = [14, 9, 15, 11, 12, 6, 10, 9, 12, 14, 7, 14, 14\n18, 10, 16, 17, 8, 13, 12, 14, 10, 16, 9, 12\n10, 10, 12, 9, 18, 21, 16, 10, 11, 8, 10, 7, 7\n14, 12, 15]"] ;
1 [label="vomiting <= 0.5\nentropy = 4.646\nsamples = 316\nvalue = [14, 9, 15, 11, 12, 6, 2, 9, 0, 14, 1, 0, 1\n18, 10, 16, 17, 8, 13, 1, 0, 0, 1, 9, 0, 0\n2, 12, 0, 18, 21, 16, 10, 11, 0, 10, 0, 0, 14\n0, 15]"] ;
0 -> 1 [labeldistance=2.5, labelangle=45, headlabel="True"] ;
2 [label="skin_rash <= 0.5\nentropy = 4.112\nsamples = 192\nvalue = [1, 9, 15, 0, 12, 6, 2, 9, 0, 1, 1, 0, 1, 18\n10, 16, 2, 0, 1, 1, 0, 0, 0, 9, 0, 0, 2, 12\n0, 1, 21, 16, 1, 0, 0, 10, 0, 0, 14, 0, 1]"] ;
1 -> 2 ;
3 [label="stiff_neck <= 0.5\nentropy = 3.807\nsamples = 134\nvalue = [1, 9, 2, 0, 12, 6, 2, 9, 0, 1, 1, 0, 1, 18\n1, 1, 2, 0, 1, 1, 0, 0, 0, 9, 0, 0, 2, 1\n0, 1, 21, 16, 1, 0, 0, 0, 0, 0, 14, 0, 1]"] ;
2 -> 3 ;
4 [label="neck_pain <= 0.5\nentropy = 3.709\nsamples = 108\nvalue = [1, 9, 2, 0, 12, 0, 2, 9, 0, 1, 1, 0, 1, 18\n1, 1, 2, 0, 1, 1, 0, 0, 0, 9, 0, 0, 2, 1\n0, 1, 1, 16, 1, 0, 0, 0, 0, 0, 14, 0, 1]"] ;
3 -> 4 ;
5 [label="pain_in_anal_region <= 0.5\nentropy = 3.578\nsamples = 84\nvalue = [1, 9, 2, 0, 12, 0, 2, 1, 0, 1, 1, 0, 1, 18\n1, 1, 2, 0, 1, 1, 0, 0, 0, 9, 0, 0, 2, 1\n0, 1, 1, 0, 1, 0, 0, 0, 0, 0, 14, 0, 1]"] ;
4 -> 5 ;
6 [label="bladder_discomfort <= 0.5\nentropy = 3.599\nsamples = 66\nvalue = [1, 9, 2, 0, 12, 0, 2, 1, 0, 1, 1, 0, 1, 0\n1, 1, 2, 0, 1, 1, 0, 0, 0, 9, 0, 0, 2, 1\n0, 1, 1, 0, 1, 0, 0, 0, 0, 0, 14, 0, 1]"] ;
5 -> 6 ;
7 [label="high_fever <= 0.5\nentropy = 3.622\nsamples = 52\nvalue = [1, 9, 2, 0, 12, 0, 2, 1, 0, 1, 1, 0, 1, 0\n1, 1, 2, 0, 1, 1, 0, 0, 0, 9, 0, 0, 2, 1\n0, 1, 1, 0, 1, 0, 0, 0, 0, 0, 0, 0, 1]"] ;
6 -> 7 ;
8 [label="loss_of_balance <= 0.5\nentropy = 3.207\nsamples = 38\nvalue = [1, 0, 2, 0, 12, 0, 0, 1, 0, 1, 0, 0, 1, 0\n1, 1, 2, 0, 1, 1, 0, 0, 0, 9, 0, 0, 2, 0\n0, 0, 1, 0, 1, 0, 0, 0, 0, 0, 0, 0, 1]"] ;
7 -> 8 ;
9 [label="continuous_sneezing <= 0.5\nentropy = 2.939\nsamples = 27\nvalue = [0, 0, 2, 0, 12, 0, 0, 0, 0, 1, 0, 0, 1, 0\n1, 1, 2, 0, 1, 1, 0, 0, 0, 0, 0, 0, 2, 0\n0, 0, 1, 0, 1, 0, 0, 0, 0, 0, 0, 0, 1]"] ;
8 -> 9 ;
10 [label="lethargy <= 0.5\nentropy = 3.625\nsamples = 16\nvalue = [0, 0, 2, 0, 1, 0, 0, 0, 0, 1, 0, 0, 1, 0\n1, 1, 2, 0, 1, 1, 0, 0, 0, 0, 0, 0, 2, 0\n0, 0, 1, 0, 1, 0, 0, 0, 0, 0, 0, 0, 1]"] ;
9 -> 10 ;
11 [label="stomach_pain <= 0.5\nentropy = 3.252\nsamples = 12\nvalue = [0, 0, 2, 0, 1, 0, 0, 0, 0, 1, 0, 0, 0, 0\n1, 1, 2, 0, 1, 0, 0, 0, 0, 0, 0, 0, 0, 0\n0, 0, 1, 0, 1, 0, 0, 0, 0, 0, 0, 0, 1]"] ;
10 -> 11 ;
12 [label="scurring <= 0.5\nentropy = 2.948\nsamples = 9\nvalue = [0, 0, 2, 0, 1, 0, 0, 0, 0, 1, 0, 0, 0, 0\n0, 1, 0, 0, 1, 0, 0, 0, 0, 0, 0, 0, 0, 0\n0, 0, 1, 0, 1, 0, 0, 0, 0, 0, 0, 0, 1]"] ;
11 -> 12 ;
13 [label="yellowing_of_eyes <= 0.5\nentropy = 2.807\nsamples = 7\nvalue = [0, 0, 0, 0, 1, 0, 0, 0, 0, 1, 0, 0, 0, 0\n0, 1, 0, 0, 1, 0, 0, 0, 0, 0, 0, 0, 0, 0\n0, 0, 1, 0, 1, 0, 0, 0, 0, 0, 0, 0, 1]"] ;
12 -> 13 ;
14 [label="headache <= 0.5\nentropy = 2.322\nsamples = 5\nvalue = [0, 0, 0, 0, 1, 0, 0, 0, 0, 0, 0, 0, 0, 0\n0, 1, 0, 0, 1, 0, 0, 0, 0, 0, 0, 0, 0, 0\n0, 0, 1, 0, 1, 0, 0, 0, 0, 0, 0, 0, 0]"] ;
13 -> 14 ;
15 [label="watering_from_eyes <= 0.5\nentropy = 1.585\nsamples = 3\nvalue = [0, 0, 0, 0, 1, 0, 0, 0, 0, 0, 0, 0, 0, 0\n0, 1, 0, 0, 1, 0, 0, 0, 0, 0, 0, 0, 0, 0\n0, 0, 0, 0, 0, 0, 0, 0, 0, 0, 0, 0, 0]"] ;
14 -> 15 ;
16 [label="chest_pain <= 0.5\nentropy = 1.0\nsamples = 2\nvalue = [0, 0, 0, 0, 0, 0, 0, 0, 0, 0, 0, 0, 0, 0\n0, 1, 0, 0, 1, 0, 0, 0, 0, 0, 0, 0, 0, 0\n0, 0, 0, 0, 0, 0, 0, 0, 0, 0, 0, 0, 0]"] ;
15 -> 16 ;
17 [label="entropy = 0.0\nsamples = 1\nvalue = [0, 0, 0, 0, 0, 0, 0, 0, 0, 0, 0, 0, 0, 0\n0, 1, 0, 0, 0, 0, 0, 0, 0, 0, 0, 0, 0, 0\n0, 0, 0, 0, 0, 0, 0, 0, 0, 0, 0, 0, 0]"] ;
16 -> 17 ;
18 [label="entropy = 0.0\nsamples = 1\nvalue = [0, 0, 0, 0, 0, 0, 0, 0, 0, 0, 0, 0, 0, 0\n0, 0, 0, 0, 1, 0, 0, 0, 0, 0, 0, 0, 0, 0\n0, 0, 0, 0, 0, 0, 0, 0, 0, 0, 0, 0, 0]"] ;
16 -> 18 ;
19 [label="entropy = 0.0\nsamples = 1\nvalue = [0, 0, 0, 0, 1, 0, 0, 0, 0, 0, 0, 0, 0, 0\n0, 0, 0, 0, 0, 0, 0, 0, 0, 0, 0, 0, 0, 0\n0, 0, 0, 0, 0, 0, 0, 0, 0, 0, 0, 0, 0]"] ;
15 -> 19 ;
20 [label="visual_disturbances <= 0.5\nentropy = 1.0\nsamples = 2\nvalue = [0, 0, 0, 0, 0, 0, 0, 0, 0, 0, 0, 0, 0, 0\n0, 0, 0, 0, 0, 0, 0, 0, 0, 0, 0, 0, 0, 0\n0, 0, 1, 0, 1, 0, 0, 0, 0, 0, 0, 0, 0]"] ;
14 -> 20 ;
21 [label="entropy = 0.0\nsamples = 1\nvalue = [0, 0, 0, 0, 0, 0, 0, 0, 0, 0, 0, 0, 0, 0\n0, 0, 0, 0, 0, 0, 0, 0, 0, 0, 0, 0, 0, 0\n0, 0, 0, 0, 1, 0, 0, 0, 0, 0, 0, 0, 0]"] ;
20 -> 21 ;
22 [label="entropy = 0.0\nsamples = 1\nvalue = [0, 0, 0, 0, 0, 0, 0, 0, 0, 0, 0, 0, 0, 0\n0, 0, 0, 0, 0, 0, 0, 0, 0, 0, 0, 0, 0, 0\n0, 0, 1, 0, 0, 0, 0, 0, 0, 0, 0, 0, 0]"] ;
20 -> 22 ;
23 [label="mild_fever <= 0.5\nentropy = 1.0\nsamples = 2\nvalue = [0, 0, 0, 0, 0, 0, 0, 0, 0, 1, 0, 0, 0, 0\n0, 0, 0, 0, 0, 0, 0, 0, 0, 0, 0, 0, 0, 0\n0, 0, 0, 0, 0, 0, 0, 0, 0, 0, 0, 0, 1]"] ;
13 -> 23 ;
24 [label="entropy = 0.0\nsamples = 1\nvalue = [0, 0, 0, 0, 0, 0, 0, 0, 0, 1, 0, 0, 0, 0\n0, 0, 0, 0, 0, 0, 0, 0, 0, 0, 0, 0, 0, 0\n0, 0, 0, 0, 0, 0, 0, 0, 0, 0, 0, 0, 0]"] ;
23 -> 24 ;
25 [label="entropy = 0.0\nsamples = 1\nvalue = [0, 0, 0, 0, 0, 0, 0, 0, 0, 0, 0, 0, 0, 0\n0, 0, 0, 0, 0, 0, 0, 0, 0, 0, 0, 0, 0, 0\n0, 0, 0, 0, 0, 0, 0, 0, 0, 0, 0, 0, 1]"] ;
23 -> 25 ;
26 [label="entropy = 0.0\nsamples = 2\nvalue = [0, 0, 2, 0, 0, 0, 0, 0, 0, 0, 0, 0, 0, 0\n0, 0, 0, 0, 0, 0, 0, 0, 0, 0, 0, 0, 0, 0\n0, 0, 0, 0, 0, 0, 0, 0, 0, 0, 0, 0, 0]"] ;
12 -> 26 ;
27 [label="cough <= 0.5\nentropy = 0.918\nsamples = 3\nvalue = [0, 0, 0, 0, 0, 0, 0, 0, 0, 0, 0, 0, 0, 0\n1, 0, 2, 0, 0, 0, 0, 0, 0, 0, 0, 0, 0, 0\n0, 0, 0, 0, 0, 0, 0, 0, 0, 0, 0, 0, 0]"] ;
11 -> 27 ;
28 [label="entropy = 0.0\nsamples = 1\nvalue = [0, 0, 0, 0, 0, 0, 0, 0, 0, 0, 0, 0, 0, 0\n1, 0, 0, 0, 0, 0, 0, 0, 0, 0, 0, 0, 0, 0\n0, 0, 0, 0, 0, 0, 0, 0, 0, 0, 0, 0, 0]"] ;
27 -> 28 ;
29 [label="entropy = 0.0\nsamples = 2\nvalue = [0, 0, 0, 0, 0, 0, 0, 0, 0, 0, 0, 0, 0, 0\n0, 0, 2, 0, 0, 0, 0, 0, 0, 0, 0, 0, 0, 0\n0, 0, 0, 0, 0, 0, 0, 0, 0, 0, 0, 0, 0]"] ;
27 -> 29 ;
30 [label="depression <= 0.5\nentropy = 1.5\nsamples = 4\nvalue = [0, 0, 0, 0, 0, 0, 0, 0, 0, 0, 0, 0, 1, 0\n0, 0, 0, 0, 0, 1, 0, 0, 0, 0, 0, 0, 2, 0\n0, 0, 0, 0, 0, 0, 0, 0, 0, 0, 0, 0, 0]"] ;
10 -> 30 ;
31 [label="dark_urine <= 0.5\nentropy = 1.0\nsamples = 2\nvalue = [0, 0, 0, 0, 0, 0, 0, 0, 0, 0, 0, 0, 1, 0\n0, 0, 0, 0, 0, 1, 0, 0, 0, 0, 0, 0, 0, 0\n0, 0, 0, 0, 0, 0, 0, 0, 0, 0, 0, 0, 0]"] ;
30 -> 31 ;
32 [label="entropy = 0.0\nsamples = 1\nvalue = [0, 0, 0, 0, 0, 0, 0, 0, 0, 0, 0, 0, 1, 0\n0, 0, 0, 0, 0, 0, 0, 0, 0, 0, 0, 0, 0, 0\n0, 0, 0, 0, 0, 0, 0, 0, 0, 0, 0, 0, 0]"] ;
31 -> 32 ;
33 [label="entropy = 0.0\nsamples = 1\nvalue = [0, 0, 0, 0, 0, 0, 0, 0, 0, 0, 0, 0, 0, 0\n0, 0, 0, 0, 0, 1, 0, 0, 0, 0, 0, 0, 0, 0\n0, 0, 0, 0, 0, 0, 0, 0, 0, 0, 0, 0, 0]"] ;
31 -> 33 ;
34 [label="entropy = 0.0\nsamples = 2\nvalue = [0, 0, 0, 0, 0, 0, 0, 0, 0, 0, 0, 0, 0, 0\n0, 0, 0, 0, 0, 0, 0, 0, 0, 0, 0, 0, 2, 0\n0, 0, 0, 0, 0, 0, 0, 0, 0, 0, 0, 0, 0]"] ;
30 -> 34 ;
35 [label="entropy = 0.0\nsamples = 11\nvalue = [0, 0, 0, 0, 11, 0, 0, 0, 0, 0, 0, 0, 0, 0\n0, 0, 0, 0, 0, 0, 0, 0, 0, 0, 0, 0, 0, 0\n0, 0, 0, 0, 0, 0, 0, 0, 0, 0, 0, 0, 0]"] ;
9 -> 35 ;
36 [label="lack_of_concentration <= 0.5\nentropy = 0.866\nsamples = 11\nvalue = [1, 0, 0, 0, 0, 0, 0, 1, 0, 0, 0, 0, 0, 0\n0, 0, 0, 0, 0, 0, 0, 0, 0, 9, 0, 0, 0, 0\n0, 0, 0, 0, 0, 0, 0, 0, 0, 0, 0, 0, 0]"] ;
8 -> 36 ;
37 [label="headache <= 0.5\nentropy = 1.0\nsamples = 2\nvalue = [1, 0, 0, 0, 0, 0, 0, 1, 0, 0, 0, 0, 0, 0\n0, 0, 0, 0, 0, 0, 0, 0, 0, 0, 0, 0, 0, 0\n0, 0, 0, 0, 0, 0, 0, 0, 0, 0, 0, 0, 0]"] ;
36 -> 37 ;
38 [label="entropy = 0.0\nsamples = 1\nvalue = [0, 0, 0, 0, 0, 0, 0, 1, 0, 0, 0, 0, 0, 0\n0, 0, 0, 0, 0, 0, 0, 0, 0, 0, 0, 0, 0, 0\n0, 0, 0, 0, 0, 0, 0, 0, 0, 0, 0, 0, 0]"] ;
37 -> 38 ;
39 [label="entropy = 0.0\nsamples = 1\nvalue = [1, 0, 0, 0, 0, 0, 0, 0, 0, 0, 0, 0, 0, 0\n0, 0, 0, 0, 0, 0, 0, 0, 0, 0, 0, 0, 0, 0\n0, 0, 0, 0, 0, 0, 0, 0, 0, 0, 0, 0, 0]"] ;
37 -> 39 ;
40 [label="entropy = 0.0\nsamples = 9\nvalue = [0, 0, 0, 0, 0, 0, 0, 0, 0, 0, 0, 0, 0, 0\n0, 0, 0, 0, 0, 0, 0, 0, 0, 9, 0, 0, 0, 0\n0, 0, 0, 0, 0, 0, 0, 0, 0, 0, 0, 0, 0]"] ;
36 -> 40 ;
41 [label="muscle_wasting <= 0.5\nentropy = 1.627\nsamples = 14\nvalue = [0, 9, 0, 0, 0, 0, 2, 0, 0, 0, 1, 0, 0, 0\n0, 0, 0, 0, 0, 0, 0, 0, 0, 0, 0, 0, 0, 1\n0, 1, 0, 0, 0, 0, 0, 0, 0, 0, 0, 0, 0]"] ;
7 -> 41 ;
42 [label="breathlessness <= 0.5\nentropy = 1.922\nsamples = 5\nvalue = [0, 0, 0, 0, 0, 0, 2, 0, 0, 0, 1, 0, 0, 0\n0, 0, 0, 0, 0, 0, 0, 0, 0, 0, 0, 0, 0, 1\n0, 1, 0, 0, 0, 0, 0, 0, 0, 0, 0, 0, 0]"] ;
41 -> 42 ;
43 [label="muscle_pain <= 0.5\nentropy = 1.585\nsamples = 3\nvalue = [0, 0, 0, 0, 0, 0, 0, 0, 0, 0, 1, 0, 0, 0\n0, 0, 0, 0, 0, 0, 0, 0, 0, 0, 0, 0, 0, 1\n0, 1, 0, 0, 0, 0, 0, 0, 0, 0, 0, 0, 0]"] ;
42 -> 43 ;
44 [label="entropy = 0.0\nsamples = 1\nvalue = [0, 0, 0, 0, 0, 0, 0, 0, 0, 0, 0, 0, 0, 0\n0, 0, 0, 0, 0, 0, 0, 0, 0, 0, 0, 0, 0, 1\n0, 0, 0, 0, 0, 0, 0, 0, 0, 0, 0, 0, 0]"] ;
43 -> 44 ;
45 [label="phlegm <= 0.5\nentropy = 1.0\nsamples = 2\nvalue = [0, 0, 0, 0, 0, 0, 0, 0, 0, 0, 1, 0, 0, 0\n0, 0, 0, 0, 0, 0, 0, 0, 0, 0, 0, 0, 0, 0\n0, 1, 0, 0, 0, 0, 0, 0, 0, 0, 0, 0, 0]"] ;
43 -> 45 ;
46 [label="entropy = 0.0\nsamples = 1\nvalue = [0, 0, 0, 0, 0, 0, 0, 0, 0, 0, 0, 0, 0, 0\n0, 0, 0, 0, 0, 0, 0, 0, 0, 0, 0, 0, 0, 0\n0, 1, 0, 0, 0, 0, 0, 0, 0, 0, 0, 0, 0]"] ;
45 -> 46 ;
47 [label="entropy = 0.0\nsamples = 1\nvalue = [0, 0, 0, 0, 0, 0, 0, 0, 0, 0, 1, 0, 0, 0\n0, 0, 0, 0, 0, 0, 0, 0, 0, 0, 0, 0, 0, 0\n0, 0, 0, 0, 0, 0, 0, 0, 0, 0, 0, 0, 0]"] ;
45 -> 47 ;
48 [label="entropy = 0.0\nsamples = 2\nvalue = [0, 0, 0, 0, 0, 0, 2, 0, 0, 0, 0, 0, 0, 0\n0, 0, 0, 0, 0, 0, 0, 0, 0, 0, 0, 0, 0, 0\n0, 0, 0, 0, 0, 0, 0, 0, 0, 0, 0, 0, 0]"] ;
42 -> 48 ;
49 [label="entropy = 0.0\nsamples = 9\nvalue = [0, 9, 0, 0, 0, 0, 0, 0, 0, 0, 0, 0, 0, 0\n0, 0, 0, 0, 0, 0, 0, 0, 0, 0, 0, 0, 0, 0\n0, 0, 0, 0, 0, 0, 0, 0, 0, 0, 0, 0, 0]"] ;
41 -> 49 ;
50 [label="entropy = 0.0\nsamples = 14\nvalue = [0, 0, 0, 0, 0, 0, 0, 0, 0, 0, 0, 0, 0, 0\n0, 0, 0, 0, 0, 0, 0, 0, 0, 0, 0, 0, 0, 0\n0, 0, 0, 0, 0, 0, 0, 0, 0, 0, 14, 0, 0]"] ;
6 -> 50 ;
51 [label="entropy = 0.0\nsamples = 18\nvalue = [0, 0, 0, 0, 0, 0, 0, 0, 0, 0, 0, 0, 0, 18\n0, 0, 0, 0, 0, 0, 0, 0, 0, 0, 0, 0, 0, 0\n0, 0, 0, 0, 0, 0, 0, 0, 0, 0, 0, 0, 0]"] ;
5 -> 51 ;
52 [label="back_pain <= 0.5\nentropy = 0.918\nsamples = 24\nvalue = [0, 0, 0, 0, 0, 0, 0, 8, 0, 0, 0, 0, 0, 0\n0, 0, 0, 0, 0, 0, 0, 0, 0, 0, 0, 0, 0, 0\n0, 0, 0, 16, 0, 0, 0, 0, 0, 0, 0, 0, 0]"] ;
4 -> 52 ;
53 [label="entropy = 0.0\nsamples = 16\nvalue = [0, 0, 0, 0, 0, 0, 0, 0, 0, 0, 0, 0, 0, 0\n0, 0, 0, 0, 0, 0, 0, 0, 0, 0, 0, 0, 0, 0\n0, 0, 0, 16, 0, 0, 0, 0, 0, 0, 0, 0, 0]"] ;
52 -> 53 ;
54 [label="entropy = 0.0\nsamples = 8\nvalue = [0, 0, 0, 0, 0, 0, 0, 8, 0, 0, 0, 0, 0, 0\n0, 0, 0, 0, 0, 0, 0, 0, 0, 0, 0, 0, 0, 0\n0, 0, 0, 0, 0, 0, 0, 0, 0, 0, 0, 0, 0]"] ;
52 -> 54 ;
55 [label="irritability <= 0.5\nentropy = 0.779\nsamples = 26\nvalue = [0, 0, 0, 0, 0, 6, 0, 0, 0, 0, 0, 0, 0, 0\n0, 0, 0, 0, 0, 0, 0, 0, 0, 0, 0, 0, 0, 0\n0, 0, 20, 0, 0, 0, 0, 0, 0, 0, 0, 0, 0]"] ;
3 -> 55 ;
56 [label="entropy = 0.0\nsamples = 6\nvalue = [0, 0, 0, 0, 0, 6, 0, 0, 0, 0, 0, 0, 0, 0\n0, 0, 0, 0, 0, 0, 0, 0, 0, 0, 0, 0, 0, 0\n0, 0, 0, 0, 0, 0, 0, 0, 0, 0, 0, 0, 0]"] ;
55 -> 56 ;
57 [label="entropy = 0.0\nsamples = 20\nvalue = [0, 0, 0, 0, 0, 0, 0, 0, 0, 0, 0, 0, 0, 0\n0, 0, 0, 0, 0, 0, 0, 0, 0, 0, 0, 0, 0, 0\n0, 0, 20, 0, 0, 0, 0, 0, 0, 0, 0, 0, 0]"] ;
55 -> 57 ;
58 [label="itching <= 0.5\nentropy = 2.297\nsamples = 58\nvalue = [0, 0, 13, 0, 0, 0, 0, 0, 0, 0, 0, 0, 0, 0\n9, 15, 0, 0, 0, 0, 0, 0, 0, 0, 0, 0, 0, 11\n0, 0, 0, 0, 0, 0, 0, 10, 0, 0, 0, 0, 0]"] ;
2 -> 58 ;
59 [label="scurring <= 0.5\nentropy = 1.718\nsamples = 35\nvalue = [0, 0, 13, 0, 0, 0, 0, 0, 0, 0, 0, 0, 0, 0\n0, 1, 0, 0, 0, 0, 0, 0, 0, 0, 0, 0, 0, 11\n0, 0, 0, 0, 0, 0, 0, 10, 0, 0, 0, 0, 0]"] ;
58 -> 59 ;
60 [label="silver_like_dusting <= 0.5\nentropy = 1.22\nsamples = 22\nvalue = [0, 0, 0, 0, 0, 0, 0, 0, 0, 0, 0, 0, 0, 0\n0, 1, 0, 0, 0, 0, 0, 0, 0, 0, 0, 0, 0, 11\n0, 0, 0, 0, 0, 0, 0, 10, 0, 0, 0, 0, 0]"] ;
59 -> 60 ;
61 [label="dischromic _patches <= 0.5\nentropy = 0.414\nsamples = 12\nvalue = [0, 0, 0, 0, 0, 0, 0, 0, 0, 0, 0, 0, 0, 0\n0, 1, 0, 0, 0, 0, 0, 0, 0, 0, 0, 0, 0, 11\n0, 0, 0, 0, 0, 0, 0, 0, 0, 0, 0, 0, 0]"] ;
60 -> 61 ;
62 [label="entropy = 0.0\nsamples = 11\nvalue = [0, 0, 0, 0, 0, 0, 0, 0, 0, 0, 0, 0, 0, 0\n0, 0, 0, 0, 0, 0, 0, 0, 0, 0, 0, 0, 0, 11\n0, 0, 0, 0, 0, 0, 0, 0, 0, 0, 0, 0, 0]"] ;
61 -> 62 ;
63 [label="entropy = 0.0\nsamples = 1\nvalue = [0, 0, 0, 0, 0, 0, 0, 0, 0, 0, 0, 0, 0, 0\n0, 1, 0, 0, 0, 0, 0, 0, 0, 0, 0, 0, 0, 0\n0, 0, 0, 0, 0, 0, 0, 0, 0, 0, 0, 0, 0]"] ;
61 -> 63 ;
64 [label="entropy = 0.0\nsamples = 10\nvalue = [0, 0, 0, 0, 0, 0, 0, 0, 0, 0, 0, 0, 0, 0\n0, 0, 0, 0, 0, 0, 0, 0, 0, 0, 0, 0, 0, 0\n0, 0, 0, 0, 0, 0, 0, 10, 0, 0, 0, 0, 0]"] ;
60 -> 64 ;
65 [label="entropy = 0.0\nsamples = 13\nvalue = [0, 0, 13, 0, 0, 0, 0, 0, 0, 0, 0, 0, 0, 0\n0, 0, 0, 0, 0, 0, 0, 0, 0, 0, 0, 0, 0, 0\n0, 0, 0, 0, 0, 0, 0, 0, 0, 0, 0, 0, 0]"] ;
59 -> 65 ;
66 [label="burning_micturition <= 0.5\nentropy = 0.966\nsamples = 23\nvalue = [0, 0, 0, 0, 0, 0, 0, 0, 0, 0, 0, 0, 0, 0\n9, 14, 0, 0, 0, 0, 0, 0, 0, 0, 0, 0, 0, 0\n0, 0, 0, 0, 0, 0, 0, 0, 0, 0, 0, 0, 0]"] ;
58 -> 66 ;
67 [label="stomach_pain <= 0.5\nentropy = 0.353\nsamples = 15\nvalue = [0, 0, 0, 0, 0, 0, 0, 0, 0, 0, 0, 0, 0, 0\n1, 14, 0, 0, 0, 0, 0, 0, 0, 0, 0, 0, 0, 0\n0, 0, 0, 0, 0, 0, 0, 0, 0, 0, 0, 0, 0]"] ;
66 -> 67 ;
68 [label="entropy = 0.0\nsamples = 14\nvalue = [0, 0, 0, 0, 0, 0, 0, 0, 0, 0, 0, 0, 0, 0\n0, 14, 0, 0, 0, 0, 0, 0, 0, 0, 0, 0, 0, 0\n0, 0, 0, 0, 0, 0, 0, 0, 0, 0, 0, 0, 0]"] ;
67 -> 68 ;
69 [label="entropy = 0.0\nsamples = 1\nvalue = [0, 0, 0, 0, 0, 0, 0, 0, 0, 0, 0, 0, 0, 0\n1, 0, 0, 0, 0, 0, 0, 0, 0, 0, 0, 0, 0, 0\n0, 0, 0, 0, 0, 0, 0, 0, 0, 0, 0, 0, 0]"] ;
67 -> 69 ;
70 [label="entropy = 0.0\nsamples = 8\nvalue = [0, 0, 0, 0, 0, 0, 0, 0, 0, 0, 0, 0, 0, 0\n8, 0, 0, 0, 0, 0, 0, 0, 0, 0, 0, 0, 0, 0\n0, 0, 0, 0, 0, 0, 0, 0, 0, 0, 0, 0, 0]"] ;
66 -> 70 ;
71 [label="nausea <= 0.5\nentropy = 3.331\nsamples = 124\nvalue = [13, 0, 0, 11, 0, 0, 0, 0, 0, 13, 0, 0, 0, 0\n0, 0, 15, 8, 12, 0, 0, 0, 1, 0, 0, 0, 0, 0\n0, 17, 0, 0, 9, 11, 0, 0, 0, 0, 0, 0, 14]"] ;
1 -> 71 ;
72 [label="abdominal_pain <= 0.5\nentropy = 2.811\nsamples = 70\nvalue = [0, 0, 0, 11, 0, 0, 0, 0, 0, 1, 0, 0, 0, 0\n0, 0, 15, 8, 12, 0, 0, 0, 0, 0, 0, 0, 0, 0\n0, 1, 0, 0, 9, 11, 0, 0, 0, 0, 0, 0, 2]"] ;
71 -> 72 ;
73 [label="stomach_pain <= 0.5\nentropy = 2.172\nsamples = 46\nvalue = [0, 0, 0, 1, 0, 0, 0, 0, 0, 0, 0, 0, 0, 0\n0, 0, 15, 8, 12, 0, 0, 0, 0, 0, 0, 0, 0, 0\n0, 1, 0, 0, 9, 0, 0, 0, 0, 0, 0, 0, 0]"] ;
72 -> 73 ;
74 [label="sweating <= 0.5\nentropy = 1.872\nsamples = 31\nvalue = [0, 0, 0, 1, 0, 0, 0, 0, 0, 0, 0, 0, 0, 0\n0, 0, 0, 8, 12, 0, 0, 0, 0, 0, 0, 0, 0, 0\n0, 1, 0, 0, 9, 0, 0, 0, 0, 0, 0, 0, 0]"] ;
73 -> 74 ;
75 [label="weakness_of_one_body_side <= 0.5\nentropy = 1.483\nsamples = 19\nvalue = [0, 0, 0, 1, 0, 0, 0, 0, 0, 0, 0, 0, 0, 0\n0, 0, 0, 8, 1, 0, 0, 0, 0, 0, 0, 0, 0, 0\n0, 0, 0, 0, 9, 0, 0, 0, 0, 0, 0, 0, 0]"] ;
74 -> 75 ;
76 [label="dehydration <= 0.5\nentropy = 1.278\nsamples = 11\nvalue = [0, 0, 0, 1, 0, 0, 0, 0, 0, 0, 0, 0, 0, 0\n0, 0, 0, 8, 1, 0, 0, 0, 0, 0, 0, 0, 0, 0\n0, 0, 0, 0, 1, 0, 0, 0, 0, 0, 0, 0, 0]"] ;
75 -> 76 ;
77 [label="chest_pain <= 0.5\nentropy = 2.0\nsamples = 4\nvalue = [0, 0, 0, 1, 0, 0, 0, 0, 0, 0, 0, 0, 0, 0\n0, 0, 0, 1, 1, 0, 0, 0, 0, 0, 0, 0, 0, 0\n0, 0, 0, 0, 1, 0, 0, 0, 0, 0, 0, 0, 0]"] ;
76 -> 77 ;
78 [label="headache <= 0.5\nentropy = 1.585\nsamples = 3\nvalue = [0, 0, 0, 1, 0, 0, 0, 0, 0, 0, 0, 0, 0, 0\n0, 0, 0, 1, 0, 0, 0, 0, 0, 0, 0, 0, 0, 0\n0, 0, 0, 0, 1, 0, 0, 0, 0, 0, 0, 0, 0]"] ;
77 -> 78 ;
                                               79 [label="swelling_of_stomach <= 0.5\nentropy = 1.0\nsamples = 2\nvalue = [0, 0, 0, 1, 0, 0, 0, 0, 0, 0, 0, 0, 0, 0\n0, 0, 0, 0, 1, 0, 0, 0, 0, 0, 0, 0, 0, 0\n0, 0, 0, 0, 0, 0, 0, 0, 0, 0, 0, 0, 0]"] ;
78 -> 79 ;
80 [label="entropy = 0.0\nsamples = 1\nvalue = [0, 0, 0, 0, 0, 0, 0, 0, 0, 0, 0, 0, 0, 0\n0, 0, 0, 0, 1, 0, 0, 0, 0, 0, 0, 0, 0, 0\n0, 0, 0, 0, 0, 0, 0, 0, 0, 0, 0, 0, 0]"] ;
79 -> 80 ;
81 [label="entropy = 0.0\nsamples = 1\nvalue = [0, 0, 0, 1, 0, 0, 0, 0, 0, 0, 0, 0, 0, 0\n0, 0, 0, 0, 0, 0, 0, 0, 0, 0, 0, 0, 0, 0\n0, 0, 0, 0, 0, 0, 0, 0, 0, 0, 0, 0, 0]"] ;
79 -> 81 ;
82 [label="entropy = 0.0\nsamples = 1\nvalue = [0, 0, 0, 0, 0, 0, 0, 0, 0, 0, 0, 0, 0, 0\n0, 0, 0, 1, 0, 0, 0, 0, 0, 0, 0, 0, 0, 0\n0, 0, 0, 0, 0, 0, 0, 0, 0, 0, 0, 0, 0]"] ;
78 -> 82 ;
83 [label="entropy = 0.0\nsamples = 1\nvalue = [0, 0, 0, 0, 0, 0, 0, 0, 0, 0, 0, 0, 0, 0\n0, 0, 0, 0, 0, 0, 0, 0, 0, 0, 0, 0, 0, 0\n0, 0, 0, 0, 1, 0, 0, 0, 0, 0, 0, 0, 0]"] ;
77 -> 83 ;
84 [label="entropy = 0.0\nsamples = 7\nvalue = [0, 0, 0, 0, 0, 0, 0, 0, 0, 0, 0, 0, 0, 0\n0, 0, 0, 7, 0, 0, 0, 0, 0, 0, 0, 0, 0, 0\n0, 0, 0, 0, 0, 0, 0, 0, 0, 0, 0, 0, 0]"] ;
76 -> 84 ;
85 [label="entropy = 0.0\nsamples = 8\nvalue = [0, 0, 0, 0, 0, 0, 0, 0, 0, 0, 0, 0, 0, 0\n0, 0, 0, 0, 0, 0, 0, 0, 0, 0, 0, 0, 0, 0\n0, 0, 0, 0, 8, 0, 0, 0, 0, 0, 0, 0, 0]"] ;
75 -> 85 ;
86 [label="chills <= 0.5\nentropy = 0.414\nsamples = 12\nvalue = [0, 0, 0, 0, 0, 0, 0, 0, 0, 0, 0, 0, 0, 0\n0, 0, 0, 0, 11, 0, 0, 0, 0, 0, 0, 0, 0, 0\n0, 1, 0, 0, 0, 0, 0, 0, 0, 0, 0, 0, 0]"] ;
74 -> 86 ;
87 [label="entropy = 0.0\nsamples = 11\nvalue = [0, 0, 0, 0, 0, 0, 0, 0, 0, 0, 0, 0, 0, 0\n0, 0, 0, 0, 11, 0, 0, 0, 0, 0, 0, 0, 0, 0\n0, 0, 0, 0, 0, 0, 0, 0, 0, 0, 0, 0, 0]"] ;
86 -> 87 ;
88 [label="entropy = 0.0\nsamples = 1\nvalue = [0, 0, 0, 0, 0, 0, 0, 0, 0, 0, 0, 0, 0, 0\n0, 0, 0, 0, 0, 0, 0, 0, 0, 0, 0, 0, 0, 0\n0, 1, 0, 0, 0, 0, 0, 0, 0, 0, 0, 0, 0]"] ;
86 -> 88 ;
89 [label="entropy = 0.0\nsamples = 15\nvalue = [0, 0, 0, 0, 0, 0, 0, 0, 0, 0, 0, 0, 0, 0\n0, 0, 15, 0, 0, 0, 0, 0, 0, 0, 0, 0, 0, 0\n0, 0, 0, 0, 0, 0, 0, 0, 0, 0, 0, 0, 0]"] ;
73 -> 89 ;
90 [label="passage_of_gases <= 0.5\nentropy = 1.532\nsamples = 24\nvalue = [0, 0, 0, 10, 0, 0, 0, 0, 0, 1, 0, 0, 0, 0\n0, 0, 0, 0, 0, 0, 0, 0, 0, 0, 0, 0, 0, 0\n0, 0, 0, 0, 0, 11, 0, 0, 0, 0, 0, 0, 2]"] ;
72 -> 90 ;
91 [label="history_of_alcohol_consumption <= 0.5\nentropy = 0.991\nsamples = 13\nvalue = [0, 0, 0, 10, 0, 0, 0, 0, 0, 1, 0, 0, 0, 0\n0, 0, 0, 0, 0, 0, 0, 0, 0, 0, 0, 0, 0, 0\n0, 0, 0, 0, 0, 0, 0, 0, 0, 0, 0, 0, 2]"] ;
90 -> 91 ;
92 [label="joint_pain <= 0.5\nentropy = 0.918\nsamples = 3\nvalue = [0, 0, 0, 0, 0, 0, 0, 0, 0, 1, 0, 0, 0, 0\n0, 0, 0, 0, 0, 0, 0, 0, 0, 0, 0, 0, 0, 0\n0, 0, 0, 0, 0, 0, 0, 0, 0, 0, 0, 0, 2]"] ;
91 -> 92 ;
93 [label="entropy = 0.0\nsamples = 1\nvalue = [0, 0, 0, 0, 0, 0, 0, 0, 0, 1, 0, 0, 0, 0\n0, 0, 0, 0, 0, 0, 0, 0, 0, 0, 0, 0, 0, 0\n0, 0, 0, 0, 0, 0, 0, 0, 0, 0, 0, 0, 0]"] ;
92 -> 93 ;
94 [label="entropy = 0.0\nsamples = 2\nvalue = [0, 0, 0, 0, 0, 0, 0, 0, 0, 0, 0, 0, 0, 0\n0, 0, 0, 0, 0, 0, 0, 0, 0, 0, 0, 0, 0, 0\n0, 0, 0, 0, 0, 0, 0, 0, 0, 0, 0, 0, 2]"] ;
92 -> 94 ;
95 [label="entropy = 0.0\nsamples = 10\nvalue = [0, 0, 0, 10, 0, 0, 0, 0, 0, 0, 0, 0, 0, 0\n0, 0, 0, 0, 0, 0, 0, 0, 0, 0, 0, 0, 0, 0\n0, 0, 0, 0, 0, 0, 0, 0, 0, 0, 0, 0, 0]"] ;
91 -> 95 ;
96 [label="entropy = 0.0\nsamples = 11\nvalue = [0, 0, 0, 0, 0, 0, 0, 0, 0, 0, 0, 0, 0, 0\n0, 0, 0, 0, 0, 0, 0, 0, 0, 0, 0, 0, 0, 0\n0, 0, 0, 0, 0, 11, 0, 0, 0, 0, 0, 0, 0]"] ;
90 -> 96 ;
97 [label="muscle_pain <= 0.5\nentropy = 2.086\nsamples = 54\nvalue = [13, 0, 0, 0, 0, 0, 0, 0, 0, 12, 0, 0, 0, 0\n0, 0, 0, 0, 0, 0, 0, 0, 1, 0, 0, 0, 0, 0\n0, 16, 0, 0, 0, 0, 0, 0, 0, 0, 0, 0, 12]"] ;
71 -> 97 ;
98 [label="spinning_movements <= 0.5\nentropy = 1.196\nsamples = 26\nvalue = [13, 0, 0, 0, 0, 0, 0, 0, 0, 12, 0, 0, 0, 0\n0, 0, 0, 0, 0, 0, 0, 0, 1, 0, 0, 0, 0, 0\n0, 0, 0, 0, 0, 0, 0, 0, 0, 0, 0, 0, 0]"] ;
97 -> 98 ;
99 [label="acute_liver_failure <= 0.5\nentropy = 0.391\nsamples = 13\nvalue = [0, 0, 0, 0, 0, 0, 0, 0, 0, 12, 0, 0, 0, 0\n0, 0, 0, 0, 0, 0, 0, 0, 1, 0, 0, 0, 0, 0\n0, 0, 0, 0, 0, 0, 0, 0, 0, 0, 0, 0, 0]"] ;
98 -> 99 ;
100 [label="entropy = 0.0\nsamples = 12\nvalue = [0, 0, 0, 0, 0, 0, 0, 0, 0, 12, 0, 0, 0, 0\n0, 0, 0, 0, 0, 0, 0, 0, 0, 0, 0, 0, 0, 0\n0, 0, 0, 0, 0, 0, 0, 0, 0, 0, 0, 0, 0]"] ;
99 -> 100 ;
101 [label="entropy = 0.0\nsamples = 1\nvalue = [0, 0, 0, 0, 0, 0, 0, 0, 0, 0, 0, 0, 0, 0\n0, 0, 0, 0, 0, 0, 0, 0, 1, 0, 0, 0, 0, 0\n0, 0, 0, 0, 0, 0, 0, 0, 0, 0, 0, 0, 0]"] ;
99 -> 101 ;
102 [label="entropy = 0.0\nsamples = 13\nvalue = [13, 0, 0, 0, 0, 0, 0, 0, 0, 0, 0, 0, 0, 0\n0, 0, 0, 0, 0, 0, 0, 0, 0, 0, 0, 0, 0, 0\n0, 0, 0, 0, 0, 0, 0, 0, 0, 0, 0, 0, 0]"] ;
98 -> 102 ;
103 [label="loss_of_appetite <= 0.5\nentropy = 0.985\nsamples = 28\nvalue = [0, 0, 0, 0, 0, 0, 0, 0, 0, 0, 0, 0, 0, 0\n0, 0, 0, 0, 0, 0, 0, 0, 0, 0, 0, 0, 0, 0\n0, 16, 0, 0, 0, 0, 0, 0, 0, 0, 0, 0, 12]"] ;
97 -> 103 ;
104 [label="entropy = 0.0\nsamples = 16\nvalue = [0, 0, 0, 0, 0, 0, 0, 0, 0, 0, 0, 0, 0, 0\n0, 0, 0, 0, 0, 0, 0, 0, 0, 0, 0, 0, 0, 0\n0, 16, 0, 0, 0, 0, 0, 0, 0, 0, 0, 0, 0]"] ;
103 -> 104 ;
105 [label="entropy = 0.0\nsamples = 12\nvalue = [0, 0, 0, 0, 0, 0, 0, 0, 0, 0, 0, 0, 0, 0\n0, 0, 0, 0, 0, 0, 0, 0, 0, 0, 0, 0, 0, 0\n0, 0, 0, 0, 0, 0, 0, 0, 0, 0, 0, 0, 12]"] ;
103 -> 105 ;
106 [label="loss_of_appetite <= 0.5\nentropy = 4.038\nsamples = 176\nvalue = [0, 0, 0, 0, 0, 0, 8, 0, 12, 0, 6, 14, 13, 0\n0, 0, 0, 0, 0, 11, 14, 10, 15, 0, 12, 10, 8\n0, 9, 0, 0, 0, 0, 0, 8, 0, 7, 7, 0, 12, 0]"] ;
0 -> 106 [labeldistance=2.5, labelangle=-45, headlabel="False"] ;
107 [label="high_fever <= 0.5\nentropy = 3.455\nsamples = 97\nvalue = [0, 0, 0, 0, 0, 0, 8, 0, 1, 0, 6, 0, 13, 0\n0, 0, 0, 0, 0, 2, 0, 1, 0, 0, 12, 10, 8, 0\n9, 0, 0, 0, 0, 0, 8, 0, 0, 7, 0, 12, 0]"] ;
106 -> 107 ;
108 [label="irritability <= 0.5\nentropy = 2.605\nsamples = 59\nvalue = [0, 0, 0, 0, 0, 0, 0, 0, 0, 0, 1, 0, 13, 0\n0, 0, 0, 0, 0, 2, 0, 1, 0, 0, 12, 10, 8, 0\n0, 0, 0, 0, 0, 0, 0, 0, 0, 0, 0, 12, 0]"] ;
107 -> 108 ;
109 [label="polyuria <= 0.5\nentropy = 1.647\nsamples = 29\nvalue = [0, 0, 0, 0, 0, 0, 0, 0, 0, 0, 1, 0, 13, 0\n0, 0, 0, 0, 0, 2, 0, 1, 0, 0, 0, 0, 0, 0\n0, 0, 0, 0, 0, 0, 0, 0, 0, 0, 0, 12, 0]"] ;
108 -> 109 ;
110 [label="prominent_veins_on_calf <= 0.5\nentropy = 1.186\nsamples = 16\nvalue = [0, 0, 0, 0, 0, 0, 0, 0, 0, 0, 1, 0, 0, 0\n0, 0, 0, 0, 0, 2, 0, 1, 0, 0, 0, 0, 0, 0\n0, 0, 0, 0, 0, 0, 0, 0, 0, 0, 0, 12, 0]"] ;
109 -> 110 ;
111 [label="lethargy <= 0.5\nentropy = 1.5\nsamples = 4\nvalue = [0, 0, 0, 0, 0, 0, 0, 0, 0, 0, 1, 0, 0, 0\n0, 0, 0, 0, 0, 2, 0, 1, 0, 0, 0, 0, 0, 0\n0, 0, 0, 0, 0, 0, 0, 0, 0, 0, 0, 0, 0]"] ;
110 -> 111 ;
112 [label="nausea <= 0.5\nentropy = 1.0\nsamples = 2\nvalue = [0, 0, 0, 0, 0, 0, 0, 0, 0, 0, 1, 0, 0, 0\n0, 0, 0, 0, 0, 0, 0, 1, 0, 0, 0, 0, 0, 0\n0, 0, 0, 0, 0, 0, 0, 0, 0, 0, 0, 0, 0]"] ;
111 -> 112 ;
113 [label="entropy = 0.0\nsamples = 1\nvalue = [0, 0, 0, 0, 0, 0, 0, 0, 0, 0, 1, 0, 0, 0\n0, 0, 0, 0, 0, 0, 0, 0, 0, 0, 0, 0, 0, 0\n0, 0, 0, 0, 0, 0, 0, 0, 0, 0, 0, 0, 0]"] ;
112 -> 113 ;
114 [label="entropy = 0.0\nsamples = 1\nvalue = [0, 0, 0, 0, 0, 0, 0, 0, 0, 0, 0, 0, 0, 0\n0, 0, 0, 0, 0, 0, 0, 1, 0, 0, 0, 0, 0, 0\n0, 0, 0, 0, 0, 0, 0, 0, 0, 0, 0, 0, 0]"] ;
112 -> 114 ;
115 [label="entropy = 0.0\nsamples = 2\nvalue = [0, 0, 0, 0, 0, 0, 0, 0, 0, 0, 0, 0, 0, 0\n0, 0, 0, 0, 0, 2, 0, 0, 0, 0, 0, 0, 0, 0\n0, 0, 0, 0, 0, 0, 0, 0, 0, 0, 0, 0, 0]"] ;
111 -> 115 ;
116 [label="entropy = 0.0\nsamples = 12\nvalue = [0, 0, 0, 0, 0, 0, 0, 0, 0, 0, 0, 0, 0, 0\n0, 0, 0, 0, 0, 0, 0, 0, 0, 0, 0, 0, 0, 0\n0, 0, 0, 0, 0, 0, 0, 0, 0, 0, 0, 12, 0]"] ;
110 -> 116 ;
117 [label="entropy = 0.0\nsamples = 13\nvalue = [0, 0, 0, 0, 0, 0, 0, 0, 0, 0, 0, 0, 13, 0\n0, 0, 0, 0, 0, 0, 0, 0, 0, 0, 0, 0, 0, 0\n0, 0, 0, 0, 0, 0, 0, 0, 0, 0, 0, 0, 0]"] ;
109 -> 117 ;
118 [label="muscle_weakness <= 0.5\nentropy = 1.566\nsamples = 30\nvalue = [0, 0, 0, 0, 0, 0, 0, 0, 0, 0, 0, 0, 0, 0\n0, 0, 0, 0, 0, 0, 0, 0, 0, 0, 12, 10, 8, 0\n0, 0, 0, 0, 0, 0, 0, 0, 0, 0, 0, 0, 0]"] ;
108 -> 118 ;
119 [label="weight_gain <= 0.5\nentropy = 0.991\nsamples = 18\nvalue = [0, 0, 0, 0, 0, 0, 0, 0, 0, 0, 0, 0, 0, 0\n0, 0, 0, 0, 0, 0, 0, 0, 0, 0, 0, 10, 8, 0\n0, 0, 0, 0, 0, 0, 0, 0, 0, 0, 0, 0, 0]"] ;
118 -> 119 ;
120 [label="entropy = 0.0\nsamples = 10\nvalue = [0, 0, 0, 0, 0, 0, 0, 0, 0, 0, 0, 0, 0, 0\n0, 0, 0, 0, 0, 0, 0, 0, 0, 0, 0, 10, 0, 0\n0, 0, 0, 0, 0, 0, 0, 0, 0, 0, 0, 0, 0]"] ;
119 -> 120 ;
121 [label="entropy = 0.0\nsamples = 8\nvalue = [0, 0, 0, 0, 0, 0, 0, 0, 0, 0, 0, 0, 0, 0\n0, 0, 0, 0, 0, 0, 0, 0, 0, 0, 0, 0, 8, 0\n0, 0, 0, 0, 0, 0, 0, 0, 0, 0, 0, 0, 0]"] ;
119 -> 121 ;
122 [label="entropy = 0.0\nsamples = 12\nvalue = [0, 0, 0, 0, 0, 0, 0, 0, 0, 0, 0, 0, 0, 0\n0, 0, 0, 0, 0, 0, 0, 0, 0, 0, 12, 0, 0, 0\n0, 0, 0, 0, 0, 0, 0, 0, 0, 0, 0, 0, 0]"] ;
118 -> 122 ;
123 [label="malaise <= 0.5\nentropy = 2.411\nsamples = 38\nvalue = [0, 0, 0, 0, 0, 0, 8, 0, 1, 0, 5, 0, 0, 0\n0, 0, 0, 0, 0, 0, 0, 0, 0, 0, 0, 0, 0, 0\n9, 0, 0, 0, 0, 0, 8, 0, 0, 7, 0, 0, 0]"] ;
107 -> 123 ;
124 [label="weight_loss <= 0.5\nentropy = 1.577\nsamples = 24\nvalue = [0, 0, 0, 0, 0, 0, 8, 0, 0, 0, 0, 0, 0, 0\n0, 0, 0, 0, 0, 0, 0, 0, 0, 0, 0, 0, 0, 0\n9, 0, 0, 0, 0, 0, 0, 0, 0, 7, 0, 0, 0]"] ;
123 -> 124 ;
125 [label="chills <= 0.5\nentropy = 0.997\nsamples = 15\nvalue = [0, 0, 0, 0, 0, 0, 8, 0, 0, 0, 0, 0, 0, 0\n0, 0, 0, 0, 0, 0, 0, 0, 0, 0, 0, 0, 0, 0\n0, 0, 0, 0, 0, 0, 0, 0, 0, 7, 0, 0, 0]"] ;
124 -> 125 ;
126 [label="entropy = 0.0\nsamples = 8\nvalue = [0, 0, 0, 0, 0, 0, 8, 0, 0, 0, 0, 0, 0, 0\n0, 0, 0, 0, 0, 0, 0, 0, 0, 0, 0, 0, 0, 0\n0, 0, 0, 0, 0, 0, 0, 0, 0, 0, 0, 0, 0]"] ;
125 -> 126 ;
127 [label="entropy = 0.0\nsamples = 7\nvalue = [0, 0, 0, 0, 0, 0, 0, 0, 0, 0, 0, 0, 0, 0\n0, 0, 0, 0, 0, 0, 0, 0, 0, 0, 0, 0, 0, 0\n0, 0, 0, 0, 0, 0, 0, 0, 0, 7, 0, 0, 0]"] ;
125 -> 127 ;
128 [label="entropy = 0.0\nsamples = 9\nvalue = [0, 0, 0, 0, 0, 0, 0, 0, 0, 0, 0, 0, 0, 0\n0, 0, 0, 0, 0, 0, 0, 0, 0, 0, 0, 0, 0, 0\n9, 0, 0, 0, 0, 0, 0, 0, 0, 0, 0, 0, 0]"] ;
124 -> 128 ;
129 [label="headache <= 0.5\nentropy = 1.264\nsamples = 14\nvalue = [0, 0, 0, 0, 0, 0, 0, 0, 1, 0, 5, 0, 0, 0\n0, 0, 0, 0, 0, 0, 0, 0, 0, 0, 0, 0, 0, 0\n0, 0, 0, 0, 0, 0, 8, 0, 0, 0, 0, 0, 0]"] ;
123 -> 129 ;
130 [label="entropy = 0.0\nsamples = 8\nvalue = [0, 0, 0, 0, 0, 0, 0, 0, 0, 0, 0, 0, 0, 0\n0, 0, 0, 0, 0, 0, 0, 0, 0, 0, 0, 0, 0, 0\n0, 0, 0, 0, 0, 0, 8, 0, 0, 0, 0, 0, 0]"] ;
129 -> 130 ;
131 [label="muscle_pain <= 0.5\nentropy = 0.65\nsamples = 6\nvalue = [0, 0, 0, 0, 0, 0, 0, 0, 1, 0, 5, 0, 0, 0\n0, 0, 0, 0, 0, 0, 0, 0, 0, 0, 0, 0, 0, 0\n0, 0, 0, 0, 0, 0, 0, 0, 0, 0, 0, 0, 0]"] ;
129 -> 131 ;
132 [label="entropy = 0.0\nsamples = 1\nvalue = [0, 0, 0, 0, 0, 0, 0, 0, 1, 0, 0, 0, 0, 0\n0, 0, 0, 0, 0, 0, 0, 0, 0, 0, 0, 0, 0, 0\n0, 0, 0, 0, 0, 0, 0, 0, 0, 0, 0, 0, 0]"] ;
131 -> 132 ;
133 [label="entropy = 0.0\nsamples = 5\nvalue = [0, 0, 0, 0, 0, 0, 0, 0, 0, 0, 5, 0, 0, 0\n0, 0, 0, 0, 0, 0, 0, 0, 0, 0, 0, 0, 0, 0\n0, 0, 0, 0, 0, 0, 0, 0, 0, 0, 0, 0, 0]"] ;
131 -> 133 ;
134 [label="malaise <= 0.5\nentropy = 2.76\nsamples = 79\nvalue = [0, 0, 0, 0, 0, 0, 0, 0, 11, 0, 0, 14, 0, 0\n0, 0, 0, 0, 0, 9, 14, 9, 15, 0, 0, 0, 0, 0\n0, 0, 0, 0, 0, 0, 0, 0, 7, 0, 0, 0, 0]"] ;
106 -> 134 ;
135 [label="abdominal_pain <= 0.5\nentropy = 1.684\nsamples = 39\nvalue = [0, 0, 0, 0, 0, 0, 0, 0, 0, 0, 0, 1, 0, 0\n0, 0, 0, 0, 0, 0, 14, 9, 15, 0, 0, 0, 0, 0\n0, 0, 0, 0, 0, 0, 0, 0, 0, 0, 0, 0, 0]"] ;
134 -> 135 ;
136 [label="chills <= 0.5\nentropy = 0.353\nsamples = 15\nvalue = [0, 0, 0, 0, 0, 0, 0, 0, 0, 0, 0, 1, 0, 0\n0, 0, 0, 0, 0, 0, 14, 0, 0, 0, 0, 0, 0, 0\n0, 0, 0, 0, 0, 0, 0, 0, 0, 0, 0, 0, 0]"] ;
135 -> 136 ;
137 [label="entropy = 0.0\nsamples = 14\nvalue = [0, 0, 0, 0, 0, 0, 0, 0, 0, 0, 0, 0, 0, 0\n0, 0, 0, 0, 0, 0, 14, 0, 0, 0, 0, 0, 0, 0\n0, 0, 0, 0, 0, 0, 0, 0, 0, 0, 0, 0, 0]"] ;
136 -> 137 ;
138 [label="entropy = 0.0\nsamples = 1\nvalue = [0, 0, 0, 0, 0, 0, 0, 0, 0, 0, 0, 1, 0, 0\n0, 0, 0, 0, 0, 0, 0, 0, 0, 0, 0, 0, 0, 0\n0, 0, 0, 0, 0, 0, 0, 0, 0, 0, 0, 0, 0]"] ;
136 -> 138 ;
139 [label="coma <= 0.5\nentropy = 0.954\nsamples = 24\nvalue = [0, 0, 0, 0, 0, 0, 0, 0, 0, 0, 0, 0, 0, 0\n0, 0, 0, 0, 0, 0, 0, 9, 15, 0, 0, 0, 0, 0\n0, 0, 0, 0, 0, 0, 0, 0, 0, 0, 0, 0, 0]"] ;
135 -> 139 ;
140 [label="entropy = 0.0\nsamples = 9\nvalue = [0, 0, 0, 0, 0, 0, 0, 0, 0, 0, 0, 0, 0, 0\n0, 0, 0, 0, 0, 0, 0, 9, 0, 0, 0, 0, 0, 0\n0, 0, 0, 0, 0, 0, 0, 0, 0, 0, 0, 0, 0]"] ;
139 -> 140 ;
141 [label="entropy = 0.0\nsamples = 15\nvalue = [0, 0, 0, 0, 0, 0, 0, 0, 0, 0, 0, 0, 0, 0\n0, 0, 0, 0, 0, 0, 0, 0, 15, 0, 0, 0, 0, 0\n0, 0, 0, 0, 0, 0, 0, 0, 0, 0, 0, 0, 0]"] ;
139 -> 141 ;
142 [label="swelled_lymph_nodes <= 0.5\nentropy = 1.963\nsamples = 40\nvalue = [0, 0, 0, 0, 0, 0, 0, 0, 11, 0, 0, 13, 0, 0\n0, 0, 0, 0, 0, 9, 0, 0, 0, 0, 0, 0, 0, 0\n0, 0, 0, 0, 0, 0, 0, 0, 7, 0, 0, 0, 0]"] ;
134 -> 142 ;
143 [label="headache <= 0.5\nentropy = 0.976\nsamples = 22\nvalue = [0, 0, 0, 0, 0, 0, 0, 0, 0, 0, 0, 13, 0, 0\n0, 0, 0, 0, 0, 9, 0, 0, 0, 0, 0, 0, 0, 0\n0, 0, 0, 0, 0, 0, 0, 0, 0, 0, 0, 0, 0]"] ;
142 -> 143 ;
144 [label="entropy = 0.0\nsamples = 9\nvalue = [0, 0, 0, 0, 0, 0, 0, 0, 0, 0, 0, 0, 0, 0\n0, 0, 0, 0, 0, 9, 0, 0, 0, 0, 0, 0, 0, 0\n0, 0, 0, 0, 0, 0, 0, 0, 0, 0, 0, 0, 0]"] ;
143 -> 144 ;
145 [label="entropy = 0.0\nsamples = 13\nvalue = [0, 0, 0, 0, 0, 0, 0, 0, 0, 0, 0, 13, 0, 0\n0, 0, 0, 0, 0, 0, 0, 0, 0, 0, 0, 0, 0, 0\n0, 0, 0, 0, 0, 0, 0, 0, 0, 0, 0, 0, 0]"] ;
143 -> 145 ;
146 [label="chest_pain <= 0.5\nentropy = 0.964\nsamples = 18\nvalue = [0, 0, 0, 0, 0, 0, 0, 0, 11, 0, 0, 0, 0, 0\n0, 0, 0, 0, 0, 0, 0, 0, 0, 0, 0, 0, 0, 0\n0, 0, 0, 0, 0, 0, 0, 0, 7, 0, 0, 0, 0]"] ;
142 -> 146 ;
147 [label="entropy = 0.0\nsamples = 11\nvalue = [0, 0, 0, 0, 0, 0, 0, 0, 11, 0, 0, 0, 0, 0\n0, 0, 0, 0, 0, 0, 0, 0, 0, 0, 0, 0, 0, 0\n0, 0, 0, 0, 0, 0, 0, 0, 0, 0, 0, 0, 0]"] ;
146 -> 147 ;
148 [label="entropy = 0.0\nsamples = 7\nvalue = [0, 0, 0, 0, 0, 0, 0, 0, 0, 0, 0, 0, 0, 0\n0, 0, 0, 0, 0, 0, 0, 0, 0, 0, 0, 0, 0, 0\n0, 0, 0, 0, 0, 0, 0, 0, 7, 0, 0, 0, 0]"] ;
146 -> 148 ;
}